digraph Tree {
node [shape=box] ;
0 [label="X[19] <= -0.6696\nmse = 0.2367\nsamples = 4515\nvalue = 0.3847"] ;
1 [label="mse = 0.0\nsamples = 1276\nvalue = 1.0"] ;
0 -> 1 [labeldistance=2.5, labelangle=45, headlabel="True"] ;
2 [label="X[7] <= 1.1391\nmse = 0.1221\nsamples = 3239\nvalue = 0.1423"] ;
0 -> 2 [labeldistance=2.5, labelangle=-45, headlabel="False"] ;
3 [label="X[19] <= 1.2243\nmse = 0.0304\nsamples = 2678\nvalue = 0.0314"] ;
2 -> 3 ;
4 [label="mse = 0.0\nsamples = 2557\nvalue = 0.0"] ;
3 -> 4 ;
5 [label="X[21] <= 1.4038\nmse = 0.2123\nsamples = 121\nvalue = 0.6942"] ;
3 -> 5 ;
6 [label="X[20] <= 0.5895\nmse = 0.0794\nsamples = 92\nvalue = 0.913"] ;
5 -> 6 ;
7 [label="mse = 0.0\nsamples = 84\nvalue = 1.0"] ;
6 -> 7 ;
8 [label="mse = 0.0\nsamples = 8\nvalue = 0.0"] ;
6 -> 8 ;
9 [label="mse = 0.0\nsamples = 29\nvalue = 0.0"] ;
5 -> 9 ;
10 [label="X[9] <= -0.0206\nmse = 0.2204\nsamples = 561\nvalue = 0.672"] ;
2 -> 10 ;
11 [label="X[21] <= 0.1577\nmse = 0.1774\nsamples = 490\nvalue = 0.7694"] ;
10 -> 11 ;
12 [label="mse = 0.0\nsamples = 258\nvalue = 1.0"] ;
11 -> 12 ;
13 [label="X[3] <= -0.1279\nmse = 0.2498\nsamples = 232\nvalue = 0.5129"] ;
11 -> 13 ;
14 [label="X[16] <= 11.8467\nmse = 0.0617\nsamples = 121\nvalue = 0.0661"] ;
13 -> 14 ;
15 [label="mse = 0.0\nsamples = 113\nvalue = 0.0"] ;
14 -> 15 ;
16 [label="mse = 0.0\nsamples = 8\nvalue = 1.0"] ;
14 -> 16 ;
17 [label="mse = 0.0\nsamples = 111\nvalue = 1.0"] ;
13 -> 17 ;
18 [label="mse = 0.0\nsamples = 71\nvalue = 0.0"] ;
10 -> 18 ;
}